{
  "layers": [
    {
      "activation": 1,
      "biases": [
        -2.278481298653305,
        15.113382687842615,
        -1.1120181510516398
      ],
      "cols": 3,
      "rows": 2,
      "weights": [
        [
          -12.1415346898809,
          3.5996380781209547,
          5.557910301922325
        ],
        [
          13.998481980681007,
          -19.549300133412704,
          -11.621365935854492
        ]
      ]
    },
    {
      "activation": 1,
      "biases": [
        -1.9686566237441383,
        11.31775336444254,
        17.588158034767872,
        -2.031207223317787,
        0.43471556829132524,
        -0.9466606387493892,
        -3.978726817038299,
        8.467863997270124,
        -3.7508916469294293,
        -9.562126741528731
      ],
      "cols": 10,
      "rows": 3,
      "weights": [
        [
          3.664782335598567,
          -12.98267439892171,
          -34.70931263726809,
          0.25111898103178004,
          -1.1131111305304409,
          3.88082863515352,
          5.813018559048741,
          -7.545733234836536,
          3.918895446785284,
          12.61434039004074
        ],
        [
          -1.998242548505672,
          -10.837328008734683,
          -12.139052211332713,
          1.6544962056999213,
          0.993783572178226,
          -1.6935402421059007,
          6.184155022002486,
          -8.825156688389702,
          2.6752425349623716,
          5.778813344596526
        ],
        [
          5.694078909137307,
          -4.1055214767845944,
          -8.0031880588283,
          2.9741580528061773,
          -0.7842550495617586,
          3.4100108989389923,
          -4.476852892518696,
          0.7366852599036222,
          2.4161289245513666,
          16.29577812105784
        ]
      ]
    }
  ]
}
